digraph Tree {
0 [label="recipe <= 0.5000\ngini = 0.499636745987\nsamples = 7383", shape="box"] ;
1 [label="image_ratio <= 0.4555\ngini = 0.499938447094\nsamples = 7030", shape="box"] ;
0 -> 1 ;
2 [label="gini = 0.4992\nsamples = 6087\nvalue = [ 2924.  3163.]", shape="box"] ;
1 -> 2 ;
3 [label="gini = 0.4435\nsamples = 943\nvalue = [ 630.  313.]", shape="box"] ;
1 -> 3 ;
4 [label="html_ratio <= 0.1944\ngini = 0.192120954345\nsamples = 353", shape="box"] ;
0 -> 4 ;
5 [label="gini = 0.0265\nsamples = 149\nvalue = [   2.  147.]", shape="box"] ;
4 -> 5 ;
6 [label="gini = 0.2907\nsamples = 204\nvalue = [  36.  168.]", shape="box"] ;
4 -> 6 ;
}